network unknown {
}
variable Age {
    type discrete [ 3 ] { 0, 1, 2 };
}
variable Cabin {
    type discrete [ 2 ] { 0, 1 };
}
variable Fare {
    type discrete [ 7 ] { 0, 1, 2, 3, 4, 5, 6 };
}
variable Pclass {
    type discrete [ 3 ] { 1, 2, 3 };
}
variable Sex {
    type discrete [ 2 ] { 0, 1 };
}
variable Survived {
    type discrete [ 2 ] { 0, 1 };
}
probability ( Age | Cabin, Fare, Pclass, Sex, Survived ) {
    ( 0, 0, 1, 0, 0 ) 0.3333333333333333, 0.3333333333333333, 0.3333333333333333;
    ( 0, 0, 1, 0, 1 ) 0.3333333333333333, 0.3333333333333333, 0.3333333333333333;
    ( 0, 0, 1, 1, 0 ) 0.004887585532746823, 0.4975562072336266, 0.4975562072336266;
    ( 0, 0, 1, 1, 1 ) 0.3333333333333333, 0.3333333333333333, 0.3333333333333333;
    ( 0, 0, 2, 0, 0 ) 0.3333333333333333, 0.3333333333333333, 0.3333333333333333;
    ( 0, 0, 2, 0, 1 ) 0.3333333333333333, 0.3333333333333333, 0.3333333333333333;
    ( 0, 0, 2, 1, 0 ) 0.001645278051990786, 0.9967094438960183, 0.001645278051990786;
    ( 0, 0, 2, 1, 1 ) 0.3333333333333333, 0.3333333333333333, 0.3333333333333333;
    ( 0, 0, 3, 0, 0 ) 0.3333333333333333, 0.3333333333333333, 0.3333333333333333;
    ( 0, 0, 3, 0, 1 ) 0.3333333333333333, 0.3333333333333333, 0.3333333333333333;
    ( 0, 0, 3, 1, 0 ) 0.0024618414574101425, 0.4987690792712949, 0.4987690792712949;
    ( 0, 0, 3, 1, 1 ) 0.009633911368015415, 0.9807321772639692, 0.009633911368015415;
    ( 0, 1, 1, 0, 0 ) 0.3333333333333333, 0.3333333333333333, 0.3333333333333333;
    ( 0, 1, 1, 0, 1 ) 0.3333333333333333, 0.3333333333333333, 0.3333333333333333;
    ( 0, 1, 1, 1, 0 ) 0.3333333333333333, 0.3333333333333333, 0.3333333333333333;
    ( 0, 1, 1, 1, 1 ) 0.3333333333333333, 0.3333333333333333, 0.3333333333333333;
    ( 0, 1, 2, 0, 0 ) 0.004887585532746823, 0.4975562072336266, 0.4975562072336266;
    ( 0, 1, 2, 0, 1 ) 0.15816911688040872, 0.5260139714315504, 0.3158169116880409;
    ( 0, 1, 2, 1, 0 ) 0.08015070394606384, 0.5998413642673012, 0.3200079317866349;
    ( 0, 1, 2, 1, 1 ) 0.14366356195314703, 0.5704205475585662, 0.28591589048828675;
    ( 0, 1, 3, 0, 0 ) 0.17156612857547437, 0.6854148966298499, 0.14301897479467574;
    ( 0, 1, 3, 0, 1 ) 0.32609164188111556, 0.6519677572309152, 0.021940600887969307;
    ( 0, 1, 3, 1, 0 ) 0.0729946273638322, 0.7767673929517144, 0.1502379796844534;
    ( 0, 1, 3, 1, 1 ) 0.17257877110245368, 0.7237372701797553, 0.10368395871779097;
    ( 0, 2, 1, 0, 0 ) 0.3333333333333333, 0.3333333333333333, 0.3333333333333333;
    ( 0, 2, 1, 0, 1 ) 0.3333333333333333, 0.3333333333333333, 0.3333333333333333;
    ( 0, 2, 1, 1, 0 ) 0.3333333333333333, 0.3333333333333333, 0.3333333333333333;
    ( 0, 2, 1, 1, 1 ) 0.3333333333333333, 0.3333333333333333, 0.3333333333333333;
    ( 0, 2, 2, 0, 0 ) 0.009633911368015415, 0.9807321772639692, 0.009633911368015415;
    ( 0, 2, 2, 0, 1 ) 0.25020616856341743, 0.41646049810324925, 0.33333333333333337;
    ( 0, 2, 2, 1, 0 ) 0.001645278051990786, 0.9967094438960183, 0.001645278051990786;
    ( 0, 2, 2, 1, 1 ) 0.9902248289345064, 0.004887585532746823, 0.004887585532746823;
    ( 0, 2, 3, 0, 0 ) 0.4283693961250177, 0.49964644321878093, 0.07198416065620138;
    ( 0, 2, 3, 0, 1 ) 0.2501238236750867, 0.6994551758296186, 0.050421000495294695;
    ( 0, 2, 3, 1, 0 ) 0.15641454500402652, 0.687170909991947, 0.15641454500402652;
    ( 0, 2, 3, 1, 1 ) 0.44407822456602947, 0.5548231157987256, 0.001098659635245001;
    ( 0, 3, 1, 0, 0 ) 0.3333333333333333, 0.3333333333333333, 0.3333333333333333;
    ( 0, 3, 1, 0, 1 ) 0.009633911368015415, 0.9807321772639692, 0.009633911368015415;
    ( 0, 3, 1, 1, 0 ) 0.0007071135624381275, 0.5709234903125442, 0.4283693961250177;
    ( 0, 3, 1, 1, 1 ) 0.001972386587771203, 0.7972386587771203, 0.20078895463510846;
    ( 0, 3, 2, 0, 0 ) 0.004887585532746823, 0.4975562072336266, 0.4975562072336266;
    ( 0, 3, 2, 0, 1 ) 0.25008848304664827, 0.5711757627238621, 0.17873575422948962;
    ( 0, 3, 2, 1, 0 ) 0.04584346572998289, 0.49977483563000985, 0.45438169864000716;
    ( 0, 3, 2, 1, 1 ) 0.7469226981782372, 0.2506154603643525, 0.0024618414574101425;
    ( 0, 3, 3, 0, 0 ) 0.4442610322438648, 0.2224056344228018, 0.33333333333333337;
    ( 0, 3, 3, 0, 1 ) 0.4975562072336266, 0.004887585532746823, 0.4975562072336266;
    ( 0, 3, 3, 1, 0 ) 0.8564015473157844, 0.0480233984338145, 0.09557505425040096;
    ( 0, 3, 3, 1, 1 ) 0.9807321772639692, 0.009633911368015415, 0.009633911368015415;
    ( 0, 4, 1, 0, 0 ) 0.3333333333333333, 0.3333333333333333, 0.3333333333333333;
    ( 0, 4, 1, 0, 1 ) 0.001972386587771203, 0.7972386587771203, 0.20078895463510846;
    ( 0, 4, 1, 1, 0 ) 0.0032743942370661427, 0.3333333333333333, 0.6633922724296005;
    ( 0, 4, 1, 1, 1 ) 0.3333333333333333, 0.3333333333333333, 0.3333333333333333;
    ( 0, 4, 2, 0, 0 ) 0.3333333333333333, 0.3333333333333333, 0.3333333333333333;
    ( 0, 4, 2, 0, 1 ) 0.004887585532746823, 0.4975562072336266, 0.4975562072336266;
    ( 0, 4, 2, 1, 0 ) 0.20078895463510843, 0.7972386587771202, 0.0019723865877712024;
    ( 0, 4, 2, 1, 1 ) 0.3333333333333333, 0.3333333333333333, 0.3333333333333333;
    ( 0, 4, 3, 0, 0 ) 0.0032743942370661427, 0.9934512115258677, 0.0032743942370661427;
    ( 0, 4, 3, 0, 1 ) 0.3333333333333333, 0.3333333333333333, 0.3333333333333333;
    ( 0, 4, 3, 1, 0 ) 0.001645278051990786, 0.9967094438960183, 0.001645278051990786;
    ( 0, 4, 3, 1, 1 ) 0.0019723865877712024, 0.9960552268244575, 0.0019723865877712024;
    ( 0, 5, 1, 0, 0 ) 0.3333333333333333, 0.3333333333333333, 0.3333333333333333;
    ( 0, 5, 1, 0, 1 ) 0.0016452780519907863, 0.6650213886146759, 0.3333333333333333;
    ( 0, 5, 1, 1, 0 ) 0.004887585532746823, 0.9902248289345064, 0.004887585532746823;
    ( 0, 5, 1, 1, 1 ) 0.009633911368015415, 0.009633911368015415, 0.9807321772639692;
    ( 0, 5, 2, 0, 0 ) 0.3333333333333333, 0.3333333333333333, 0.3333333333333333;
    ( 0, 5, 2, 0, 1 ) 0.3333333333333333, 0.3333333333333333, 0.3333333333333333;
    ( 0, 5, 2, 1, 0 ) 0.3333333333333333, 0.3333333333333333, 0.3333333333333333;
    ( 0, 5, 2, 1, 1 ) 0.3333333333333333, 0.3333333333333333, 0.3333333333333333;
    ( 0, 5, 3, 0, 0 ) 0.3333333333333333, 0.3333333333333333, 0.3333333333333333;
    ( 0, 5, 3, 0, 1 ) 0.3333333333333333, 0.3333333333333333, 0.3333333333333333;
    ( 0, 5, 3, 1, 0 ) 0.3333333333333333, 0.3333333333333333, 0.3333333333333333;
    ( 0, 5, 3, 1, 1 ) 0.3333333333333333, 0.3333333333333333, 0.3333333333333333;
    ( 0, 6, 1, 0, 0 ) 0.3333333333333333, 0.3333333333333333, 0.3333333333333333;
    ( 0, 6, 1, 0, 1 ) 0.009633911368015415, 0.9807321772639692, 0.009633911368015415;
    ( 0, 6, 1, 1, 0 ) 0.3333333333333333, 0.3333333333333333, 0.3333333333333333;
    ( 0, 6, 1, 1, 1 ) 0.3333333333333333, 0.3333333333333333, 0.3333333333333333;
    ( 0, 6, 2, 0, 0 ) 0.3333333333333333, 0.3333333333333333, 0.3333333333333333;
    ( 0, 6, 2, 0, 1 ) 0.3333333333333333, 0.3333333333333333, 0.3333333333333333;
    ( 0, 6, 2, 1, 0 ) 0.3333333333333333, 0.3333333333333333, 0.3333333333333333;
    ( 0, 6, 2, 1, 1 ) 0.3333333333333333, 0.3333333333333333, 0.3333333333333333;
    ( 0, 6, 3, 0, 0 ) 0.3333333333333333, 0.3333333333333333, 0.3333333333333333;
    ( 0, 6, 3, 0, 1 ) 0.3333333333333333, 0.3333333333333333, 0.3333333333333333;
    ( 0, 6, 3, 1, 0 ) 0.3333333333333333, 0.3333333333333333, 0.3333333333333333;
    ( 0, 6, 3, 1, 1 ) 0.3333333333333333, 0.3333333333333333, 0.3333333333333333;
    ( 1, 0, 1, 0, 0 ) 0.3333333333333333, 0.3333333333333333, 0.3333333333333333;
    ( 1, 0, 1, 0, 1 ) 0.3333333333333333, 0.3333333333333333, 0.3333333333333333;
    ( 1, 0, 1, 1, 0 ) 0.0024618414574101425, 0.4987690792712949, 0.4987690792712949;
    ( 1, 0, 1, 1, 1 ) 0.3333333333333333, 0.3333333333333333, 0.3333333333333333;
    ( 1, 0, 2, 0, 0 ) 0.3333333333333333, 0.3333333333333333, 0.3333333333333333;
    ( 1, 0, 2, 0, 1 ) 0.3333333333333333, 0.3333333333333333, 0.3333333333333333;
    ( 1, 0, 2, 1, 0 ) 0.3333333333333333, 0.3333333333333333, 0.3333333333333333;
    ( 1, 0, 2, 1, 1 ) 0.3333333333333333, 0.3333333333333333, 0.3333333333333333;
    ( 1, 0, 3, 0, 0 ) 0.3333333333333333, 0.3333333333333333, 0.3333333333333333;
    ( 1, 0, 3, 0, 1 ) 0.3333333333333333, 0.3333333333333333, 0.3333333333333333;
    ( 1, 0, 3, 1, 0 ) 0.3333333333333333, 0.3333333333333333, 0.3333333333333333;
    ( 1, 0, 3, 1, 1 ) 0.3333333333333333, 0.3333333333333333, 0.3333333333333333;
    ( 1, 1, 1, 0, 0 ) 0.3333333333333333, 0.3333333333333333, 0.3333333333333333;
    ( 1, 1, 1, 0, 1 ) 0.3333333333333333, 0.3333333333333333, 0.3333333333333333;
    ( 1, 1, 1, 1, 0 ) 0.3333333333333333, 0.3333333333333333, 0.3333333333333333;
    ( 1, 1, 1, 1, 1 ) 0.3333333333333333, 0.3333333333333333, 0.3333333333333333;
    ( 1, 1, 2, 0, 0 ) 0.009633911368015415, 0.009633911368015415, 0.9807321772639692;
    ( 1, 1, 2, 0, 1 ) 0.0012354830738818877, 0.872992340004942, 0.12577217692117618;
    ( 1, 1, 2, 1, 0 ) 0.009633911368015415, 0.009633911368015415, 0.9807321772639692;
    ( 1, 1, 2, 1, 1 ) 0.009633911368015415, 0.9807321772639692, 0.009633911368015415;
    ( 1, 1, 3, 0, 0 ) 0.4975562072336266, 0.4975562072336266, 0.004887585532746823;
    ( 1, 1, 3, 0, 1 ) 0.009633911368015415, 0.9807321772639692, 0.009633911368015415;
    ( 1, 1, 3, 1, 0 ) 0.0024618414574101425, 0.7469226981782372, 0.2506154603643525;
    ( 1, 1, 3, 1, 1 ) 0.4975562072336266, 0.4975562072336266, 0.004887585532746823;
    ( 1, 2, 1, 0, 0 ) 0.3333333333333333, 0.3333333333333333, 0.3333333333333333;
    ( 1, 2, 1, 0, 1 ) 0.3333333333333333, 0.3333333333333333, 0.3333333333333333;
    ( 1, 2, 1, 1, 0 ) 0.3333333333333333, 0.3333333333333333, 0.3333333333333333;
    ( 1, 2, 1, 1, 1 ) 0.3333333333333333, 0.3333333333333333, 0.3333333333333333;
    ( 1, 2, 2, 0, 0 ) 0.3333333333333333, 0.3333333333333333, 0.3333333333333333;
    ( 1, 2, 2, 0, 1 ) 0.3333333333333333, 0.3333333333333333, 0.3333333333333333;
    ( 1, 2, 2, 1, 0 ) 0.3333333333333333, 0.3333333333333333, 0.3333333333333333;
    ( 1, 2, 2, 1, 1 ) 0.3333333333333333, 0.3333333333333333, 0.3333333333333333;
    ( 1, 2, 3, 0, 0 ) 0.3333333333333333, 0.3333333333333333, 0.3333333333333333;
    ( 1, 2, 3, 0, 1 ) 0.3333333333333333, 0.6633922724296005, 0.0032743942370661427;
    ( 1, 2, 3, 1, 0 ) 0.3333333333333333, 0.3333333333333333, 0.3333333333333333;
    ( 1, 2, 3, 1, 1 ) 0.3333333333333333, 0.3333333333333333, 0.3333333333333333;
    ( 1, 3, 1, 0, 0 ) 0.009633911368015415, 0.009633911368015415, 0.9807321772639692;
    ( 1, 3, 1, 0, 1 ) 0.10069238377843719, 0.3998021760633037, 0.49950544015825915;
    ( 1, 3, 1, 1, 0 ) 0.00045032873998018553, 0.2728091506799964, 0.7267405205800235;
    ( 1, 3, 1, 1, 1 ) 0.0005502366017387477, 0.4997248816991306, 0.4997248816991306;
    ( 1, 3, 2, 0, 0 ) 0.3333333333333333, 0.3333333333333333, 0.3333333333333333;
    ( 1, 3, 2, 0, 1 ) 0.9807321772639692, 0.009633911368015415, 0.009633911368015415;
    ( 1, 3, 2, 1, 0 ) 0.009633911368015415, 0.009633911368015415, 0.9807321772639692;
    ( 1, 3, 2, 1, 1 ) 0.9934512115258677, 0.0032743942370661427, 0.0032743942370661427;
    ( 1, 3, 3, 0, 0 ) 0.3333333333333333, 0.3333333333333333, 0.3333333333333333;
    ( 1, 3, 3, 0, 1 ) 0.3333333333333333, 0.3333333333333333, 0.3333333333333333;
    ( 1, 3, 3, 1, 0 ) 0.3333333333333333, 0.3333333333333333, 0.3333333333333333;
    ( 1, 3, 3, 1, 1 ) 0.3333333333333333, 0.3333333333333333, 0.3333333333333333;
    ( 1, 4, 1, 0, 0 ) 0.3333333333333333, 0.3333333333333333, 0.3333333333333333;
    ( 1, 4, 1, 0, 1 ) 0.09318946834509152, 0.48826485913219897, 0.4185456725227094;
    ( 1, 4, 1, 1, 0 ) 0.0004952947003467063, 0.3499752352649827, 0.6495294700346705;
    ( 1, 4, 1, 1, 1 ) 0.06719471947194719, 0.3998679867986799, 0.5329372937293729;
    ( 1, 4, 2, 0, 0 ) 0.3333333333333333, 0.3333333333333333, 0.3333333333333333;
    ( 1, 4, 2, 0, 1 ) 0.3333333333333333, 0.3333333333333333, 0.3333333333333333;
    ( 1, 4, 2, 1, 0 ) 0.3333333333333333, 0.3333333333333333, 0.3333333333333333;
    ( 1, 4, 2, 1, 1 ) 0.3333333333333333, 0.3333333333333333, 0.3333333333333333;
    ( 1, 4, 3, 0, 0 ) 0.3333333333333333, 0.3333333333333333, 0.3333333333333333;
    ( 1, 4, 3, 0, 1 ) 0.3333333333333333, 0.3333333333333333, 0.3333333333333333;
    ( 1, 4, 3, 1, 0 ) 0.3333333333333333, 0.3333333333333333, 0.3333333333333333;
    ( 1, 4, 3, 1, 1 ) 0.3333333333333333, 0.3333333333333333, 0.3333333333333333;
    ( 1, 5, 1, 0, 0 ) 0.4975562072336266, 0.4975562072336266, 0.004887585532746823;
    ( 1, 5, 1, 0, 1 ) 0.19067836588357392, 0.2857816775167469, 0.5235399565996792;
    ( 1, 5, 1, 1, 0 ) 0.12577217692117618, 0.37484556461576474, 0.49938225846305906;
    ( 1, 5, 1, 1, 1 ) 0.7469226981782372, 0.0024618414574101425, 0.2506154603643525;
    ( 1, 5, 2, 0, 0 ) 0.3333333333333333, 0.3333333333333333, 0.3333333333333333;
    ( 1, 5, 2, 0, 1 ) 0.3333333333333333, 0.3333333333333333, 0.3333333333333333;
    ( 1, 5, 2, 1, 0 ) 0.3333333333333333, 0.3333333333333333, 0.3333333333333333;
    ( 1, 5, 2, 1, 1 ) 0.3333333333333333, 0.3333333333333333, 0.3333333333333333;
    ( 1, 5, 3, 0, 0 ) 0.3333333333333333, 0.3333333333333333, 0.3333333333333333;
    ( 1, 5, 3, 0, 1 ) 0.3333333333333333, 0.3333333333333333, 0.3333333333333333;
    ( 1, 5, 3, 1, 0 ) 0.3333333333333333, 0.3333333333333333, 0.3333333333333333;
    ( 1, 5, 3, 1, 1 ) 0.3333333333333333, 0.3333333333333333, 0.3333333333333333;
    ( 1, 6, 1, 0, 0 ) 0.3333333333333333, 0.3333333333333333, 0.3333333333333333;
    ( 1, 6, 1, 0, 1 ) 0.2506154603643525, 0.7469226981782372, 0.0024618414574101425;
    ( 1, 6, 1, 1, 0 ) 0.004887585532746823, 0.4975562072336266, 0.4975562072336266;
    ( 1, 6, 1, 1, 1 ) 0.004887585532746823, 0.4975562072336266, 0.4975562072336266;
    ( 1, 6, 2, 0, 0 ) 0.3333333333333333, 0.3333333333333333, 0.3333333333333333;
    ( 1, 6, 2, 0, 1 ) 0.3333333333333333, 0.3333333333333333, 0.3333333333333333;
    ( 1, 6, 2, 1, 0 ) 0.3333333333333333, 0.3333333333333333, 0.3333333333333333;
    ( 1, 6, 2, 1, 1 ) 0.3333333333333333, 0.3333333333333333, 0.3333333333333333;
    ( 1, 6, 3, 0, 0 ) 0.3333333333333333, 0.3333333333333333, 0.3333333333333333;
    ( 1, 6, 3, 0, 1 ) 0.3333333333333333, 0.3333333333333333, 0.3333333333333333;
    ( 1, 6, 3, 1, 0 ) 0.3333333333333333, 0.3333333333333333, 0.3333333333333333;
    ( 1, 6, 3, 1, 1 ) 0.3333333333333333, 0.3333333333333333, 0.3333333333333333;

}
probability ( Cabin | Pclass ) {
    ( 1 ) 0.18759571209800918, 0.8124042879019908;
    ( 2 ) 0.9093357271095153, 0.09066427289048472;
    ( 3 ) 0.9739512855209743, 0.026048714479025712;

}
probability ( Fare ) {
    table 0.01977040816326531, 0.4929846938775511, 0.11128826530612246, 0.19499362244897964, 0.12021683673469388, 0.04990433673469388, 0.010841836734693877 ;
}
probability ( Pclass | Fare ) {
    ( 0 ) 0.35215053763440857, 0.35215053763440857, 0.29569892473118276;
    ( 1 ) 0.0005390254420008624, 0.20202673566192325, 0.7974342388960759;
    ( 2 ) 0.0023877745940783187, 0.21298949379178603, 0.7846227316141355;
    ( 3 ) 0.407740528754429, 0.35050422458435543, 0.2417552466612156;
    ( 4 ) 0.8006189213085765, 0.0671971706454465, 0.132183908045977;
    ( 5 ) 0.9893503727369541, 0.005324813631522895, 0.005324813631522895;
    ( 6 ) 0.9509803921568629, 0.024509803921568634, 0.024509803921568634;

}
probability ( Sex | Cabin, Fare, Pclass ) {
    ( 0, 0, 1 ) 0.02808988764044944, 0.9719101123595506;
    ( 0, 0, 2 ) 0.009727626459143969, 0.9902723735408561;
    ( 0, 0, 3 ) 0.011627906976744186, 0.9883720930232559;
    ( 0, 1, 1 ) 0.5, 0.5;
    ( 0, 1, 2 ) 0.2695824443767144, 0.7304175556232856;
    ( 0, 1, 3 ) 0.23624314759558673, 0.7637568524044133;
    ( 0, 2, 1 ) 0.5, 0.5;
    ( 0, 2, 2 ) 0.6183765501691093, 0.38162344983089064;
    ( 0, 2, 3 ) 0.45340729001584784, 0.5465927099841521;
    ( 0, 3, 1 ) 0.052662721893491124, 0.9473372781065088;
    ( 0, 3, 2 ) 0.5356385235468816, 0.46436147645311837;
    ( 0, 3, 3 ) 0.47625777275296777, 0.5237422272470322;
    ( 0, 4, 1 ) 0.6231671554252199, 0.37683284457478006;
    ( 0, 4, 2 ) 0.28929765886287623, 0.7107023411371237;
    ( 0, 4, 3 ) 0.21669477234401346, 0.7833052276559865;
    ( 0, 5, 1 ) 0.664490861618799, 0.33550913838120106;
    ( 0, 5, 2 ) 0.5, 0.5;
    ( 0, 5, 3 ) 0.5, 0.5;
    ( 0, 6, 1 ) 0.9468085106382979, 0.05319148936170212;
    ( 0, 6, 2 ) 0.5, 0.5;
    ( 0, 6, 3 ) 0.5, 0.5;
    ( 1, 0, 1 ) 0.014450867052023123, 0.985549132947977;
    ( 1, 0, 2 ) 0.5, 0.5;
    ( 1, 0, 3 ) 0.5, 0.5;
    ( 1, 1, 1 ) 0.5, 0.5;
    ( 1, 1, 2 ) 0.8147751605995717, 0.18522483940042822;
    ( 1, 1, 3 ) 0.33550913838120106, 0.664490861618799;
    ( 1, 2, 1 ) 0.5, 0.5;
    ( 1, 2, 2 ) 0.5, 0.5;
    ( 1, 2, 3 ) 0.9809160305343512, 0.019083969465648856;
    ( 1, 3, 1 ) 0.21634839310666046, 0.7836516068933396;
    ( 1, 3, 2 ) 0.20697674418604653, 0.7930232558139535;
    ( 1, 3, 3 ) 0.5, 0.5;
    ( 1, 4, 1 ) 0.551203901249619, 0.44879609875038096;
    ( 1, 4, 2 ) 0.5, 0.5;
    ( 1, 4, 3 ) 0.5, 0.5;
    ( 1, 5, 1 ) 0.6566101694915254, 0.3433898305084746;
    ( 1, 5, 2 ) 0.5, 0.5;
    ( 1, 5, 3 ) 0.5, 0.5;
    ( 1, 6, 1 ) 0.5, 0.5;
    ( 1, 6, 2 ) 0.5, 0.5;
    ( 1, 6, 3 ) 0.5, 0.5;

}
probability ( Survived | Pclass, Sex ) {
    ( 1, 0 ) 0.03602811950790861, 0.9639718804920914;
    ( 1, 1 ) 0.6302578018995929, 0.369742198100407;
    ( 2, 0 ) 0.08351409978308025, 0.9164859002169197;
    ( 2, 1 ) 0.839969372128637, 0.16003062787136293;
    ( 3, 0 ) 0.5, 0.5;
    ( 3, 1 ) 0.8636799233349305, 0.13632007666506946;

}
